100 20
0 -2.247386 -1.539445 -2.104985 -2.007883 0.719733 0.648285 -0.064575 -1.628157 -1.760890 -0.144599 -0.375636 0.561062 0.607826 -0.125825 -1.212105 -0.526958 -0.210582 0.203368 -1.222620 1.023515 
10 -0.323639 -0.438696 1.228648 -1.460547 1.686458 -1.124487 -2.903314 1.261751 0.083070 0.878456 0.437994 -2.338273 2.471423 0.143490 1.787040 -0.178768 -0.295523 1.419011 -2.608975 1.761129 
11 -0.244030 0.087987 4.280333 -0.012536 -2.451395 2.097740 0.036117 0.645440 -1.364810 1.316263 1.925293 -1.756201 -0.413277 -0.835581 -1.395754 1.397302 -0.474560 -0.495376 -0.207133 -1.581661 
13 0.916250 0.213925 -0.360966 1.489000 0.260865 0.588486 1.181958 -2.568464 0.445837 -0.202893 0.418600 -0.875351 1.026176 0.228628 1.821926 0.292585 0.746063 -0.743379 0.345555 0.098705 
15 0.099769 0.042135 -0.229952 0.552672 -0.461061 -0.337359 1.311029 0.255192 -0.301662 -0.754210 1.035997 -0.521933 0.611100 -0.201420 -1.137036 -0.207964 0.309597 1.772699 0.467702 0.850293 
19 -1.093940 -0.977244 0.102044 0.493065 -2.010232 0.782501 0.517033 2.484818 1.891326 0.091351 -1.011152 3.099982 1.033513 -2.192641 0.071115 -2.138050 2.593174 -0.630491 3.154895 2.321528 
21 -0.046458 -1.542544 0.476678 -1.746966 -1.298889 2.043565 0.177015 -1.767497 -0.581722 2.354923 -1.291061 1.440755 1.149629 0.422573 0.709346 0.579635 -0.624418 0.095391 0.036239 0.119056 
29 0.354224 -3.104915 -0.630900 0.461348 -0.804811 1.143626 -0.667027 -0.616244 -0.326280 0.057365 0.079816 -1.551920 -0.073725 -0.212550 -0.960983 -0.163854 -0.076330 -0.543994 0.361881 -1.847474 
34 -0.605153 2.046213 -0.744044 -0.537274 1.017919 -0.961082 -0.969231 -2.394412 0.339352 -0.603155 0.000106 -1.870508 -0.767995 -0.081456 0.374198 -0.613007 0.399976 -0.791397 0.817120 -0.044991 
42 0.496091 0.249595 0.576645 -0.863018 0.706614 -0.052088 -0.623680 0.148861 -0.580327 -0.797231 0.605939 -0.222937 0.140156 -0.347546 -0.096747 -0.389347 -0.179129 0.469115 0.532235 0.275732 
43 0.083581 0.393232 -0.048209 1.660452 0.626140 -0.668312 0.281046 -0.030069 0.322192 -1.123916 -0.874915 -1.670909 0.574790 -1.516227 0.724182 -1.175637 -0.406148 -1.069238 0.771245 0.348016 
47 0.342222 -0.821457 0.897380 -0.775989 -0.000590 2.123965 -0.860062 -3.170562 0.239902 0.763259 -3.172612 0.863111 0.400826 -0.290698 -4.091100 -0.832972 1.104147 -0.719717 -0.316599 -1.377610 
49 -1.451060 0.304495 -0.513662 0.646413 1.005658 0.713973 2.709886 1.929345 3.237597 0.564543 2.980995 0.481283 0.205451 3.052933 0.698693 -0.235554 -2.698402 1.300422 1.758347 0.971126 
55 -2.609058 -2.121657 0.773508 0.887670 -1.263588 1.478410 -1.912889 0.157426 1.162476 1.241620 -0.781622 -0.481675 -2.028865 -1.658188 2.030544 0.388059 -1.732555 1.936605 0.169535 0.459080 
57 0.027155 -0.466352 -0.611219 -0.319817 0.095390 0.135455 0.153102 -1.213770 0.056531 0.658503 0.130600 0.655175 0.519631 0.117162 0.085627 -0.073266 0.359375 0.253390 0.150607 -0.052974 
63 -0.755119 1.587926 1.413044 -1.187453 0.148677 2.417815 2.566812 0.783196 1.495841 1.277224 1.148278 1.955713 1.868531 1.900757 -0.816787 0.282599 -2.054544 -2.304886 1.144277 0.358811 
65 -0.260153 -1.059510 -0.231173 -0.459729 0.232478 -1.520790 -0.479351 0.946440 0.236796 1.711765 -0.143481 -0.460790 0.565874 -0.071124 0.078517 -0.475749 0.458935 0.545820 -0.222718 0.815652 
66 2.071831 -1.158195 0.065043 1.260989 4.161118 1.094324 -0.179807 -1.132893 1.879230 -0.572061 -1.641497 0.982478 0.550529 0.454272 -3.302735 -1.703135 0.268299 0.287888 -1.306129 1.700860 
67 -0.454634 -2.111851 -0.212634 1.098317 -0.888784 0.450854 -1.318760 -0.938673 0.224548 0.055082 0.143946 0.259858 -0.444820 -0.200955 -0.261832 -0.379218 -0.185046 -0.455206 -0.032630 -0.458944 
74 1.201538 -0.443342 -0.718062 -0.773454 -3.630559 2.943245 0.230124 -0.472719 1.338425 0.166775 -1.188381 -0.870582 0.424590 1.386654 2.893949 -0.844958 -0.327370 -0.402343 1.805478 0.719964 
80 -0.718287 -3.790803 -1.709928 -1.170238 2.468854 1.313159 0.642271 0.506132 -1.658410 0.457381 -2.113029 -2.246440 1.474541 -2.526020 -0.627361 -1.168632 -0.146097 -1.254771 0.926386 -1.139900 
94 3.381125 -0.562835 0.454253 -0.645752 0.058771 1.550976 -2.625012 2.073945 2.101991 -2.483771 0.299059 0.675255 0.224987 2.247374 0.916132 -3.574236 -0.497053 -0.683602 1.293922 1.297337 
97 0.170058 2.366861 5.089942 -1.107551 -1.080539 -0.202362 -0.847328 1.574115 -0.735958 0.682157 -0.902922 -0.723074 0.030189 0.152929 -2.150799 -1.000961 -0.724676 -2.813380 1.042705 0.209254 
1 0.266025 -1.211693 -0.216303 -2.428302 0.687375 1.540733 -0.038559 2.038964 -0.437539 -0.604449 0.183459 -0.255808 -1.309051 -0.873211 1.349145 0.191226 0.436953 -0.639401 -2.432092 -1.362279 
3 -0.522553 -0.233645 1.547655 -2.696830 0.245834 -0.603975 -3.219537 -0.741114 0.613878 0.976213 -1.322252 -0.238183 1.367479 -0.110955 2.154053 0.758565 0.506031 2.570039 -0.679067 0.563318 
9 -0.216053 1.113112 -0.368104 -1.436713 -0.469471 -0.633739 -0.309838 -0.673586 0.225469 -0.552821 -0.556626 0.535161 0.586451 0.042279 -0.014466 -0.419547 0.541839 0.284517 0.075932 -0.473646 
16 -0.496340 -0.559756 -0.602427 -1.431738 -2.375948 -1.119180 -0.913978 1.066912 0.097367 1.939108 1.422271 -1.314795 -0.652708 2.597449 -0.075455 -0.299521 -2.300704 0.696265 -0.457354 3.429569 
23 1.516364 -0.331547 -0.319378 -1.049695 -0.347567 0.043212 -0.063512 -0.932970 -0.866872 -1.375273 2.954821 0.176668 -1.100090 -0.127718 -2.002592 0.071607 0.244488 2.624627 1.940627 -0.234335 
26 -2.344249 0.115036 0.022921 -1.675195 -0.187565 1.085554 -1.002781 -1.121670 -0.306193 -0.521970 1.013072 0.902865 -1.567487 -1.003476 0.019989 0.956506 1.362636 0.084202 -0.097948 0.001777 
27 0.239828 -0.711712 0.448624 0.307482 0.372045 -0.371379 -1.019353 0.548991 0.865391 -0.989028 0.651107 0.983184 1.197555 0.153697 0.887226 -0.233842 1.377335 -1.349749 -0.998982 0.694427 
31 0.349432 0.608971 -0.092645 -0.678898 0.017134 -0.474195 0.030365 -0.435185 -0.777471 0.280722 0.724220 -0.019179 -0.694513 -0.414070 0.311150 -0.372103 0.259703 -0.433855 0.252956 0.800185 
40 0.449127 -0.384496 1.075177 -0.112973 0.418072 -1.170212 -0.852644 0.837569 0.427267 -0.678467 -0.229951 1.049765 0.247600 1.265988 -0.524526 -1.857067 0.466942 -0.883635 1.420555 0.306632 
41 -0.570321 0.269592 0.331094 0.869551 0.066515 0.016251 -0.367349 -1.159106 0.418226 -0.565130 -1.780567 -0.629730 0.006174 -0.261772 -0.007127 -0.392164 -0.168442 0.727679 -0.864491 1.306651 
45 1.418974 0.625591 0.000320 -1.843768 0.511793 -1.527674 -0.721848 -1.070253 -0.515503 0.126735 -0.235366 0.899902 -0.245017 -0.091365 -0.084942 -0.345945 -0.036759 -0.060087 0.312307 -0.283777 
46 -0.484274 -0.773457 0.051045 1.279958 -1.224688 1.336912 -0.791209 0.688662 3.424850 -1.836157 1.338074 -0.231408 0.153356 -1.168345 -2.074367 2.399790 2.194330 0.778156 -0.096921 0.573701 
48 0.699590 -1.247886 -0.421490 -0.025809 0.665746 -1.800367 -0.930621 -2.941282 0.503089 1.959592 1.389730 1.297993 3.262994 0.173824 -1.254652 1.313692 0.994997 -1.079888 -1.561157 -0.119972 
50 0.282231 0.766829 -0.614677 0.420320 -0.132883 -0.300443 0.739663 -0.140204 0.938469 0.389565 0.227691 -0.562838 0.168382 -1.049193 -0.225364 0.308985 0.448046 0.554594 -0.166401 0.165632 
53 2.272472 0.028586 0.575526 0.314838 0.404243 1.367542 1.362483 0.407662 -0.492512 -1.786346 1.929919 -0.172234 -1.535916 -0.069731 -1.535918 0.082752 -1.461353 2.448793 0.471832 1.964056 
64 -1.575061 0.909055 -1.608831 -0.242553 -0.919388 0.574080 1.336738 0.495693 -0.169720 -0.853348 -0.214358 0.884458 -1.153763 -0.322304 0.606219 -2.422496 1.343415 1.259055 -3.361283 0.017835 
68 0.646060 0.347269 0.924194 -1.634925 -0.556704 -3.080584 -2.168975 -1.647531 -1.053800 -0.591301 1.543394 3.356819 2.677295 -1.893687 1.811641 -0.023401 -0.498488 0.443670 0.646500 -0.644779 
69 1.881372 0.366242 -0.533650 -0.232683 -1.392730 -0.762685 1.031349 -0.298125 1.787220 1.032306 -1.009516 0.135605 0.356800 -0.109948 -1.174642 1.018670 0.592218 0.633340 -0.764238 -0.197643 
70 1.228182 2.142573 -0.827651 0.225730 -0.631377 0.143757 0.972071 -2.025344 0.224375 3.052903 2.531163 -0.513249 -2.014060 -0.523090 0.167293 -1.380158 0.974622 -0.474156 -0.686680 -0.986174 
71 -0.389680 -0.292029 1.200269 1.148068 -0.168668 -0.255232 -0.210565 -0.509294 0.486885 -1.116599 -0.719872 -0.143642 -1.232093 -0.732842 -0.019000 0.418994 1.052630 -0.085004 0.909796 0.325178 
87 1.157148 -0.193531 1.293211 0.250722 -0.072892 0.976089 0.301388 -0.775126 1.234739 -1.979862 -0.325932 0.708516 -0.408440 1.038364 4.018796 1.373864 0.779212 -0.829174 -0.909914 -0.039496 
90 -0.476636 1.867482 0.526539 -1.988881 -0.275559 -0.068895 -1.665936 -0.705277 1.841914 -1.997008 -1.497472 -0.304006 -0.001155 0.197587 -1.242369 0.466265 1.718698 0.782126 0.010191 -0.711863 
91 0.194726 -0.775453 -0.859834 -2.814719 -0.178172 -1.585499 0.733468 0.302656 -1.502704 -0.547282 0.063853 2.106075 -2.202106 1.159363 1.002512 -0.531235 -1.133501 -0.904368 1.167200 1.399384 
95 0.136370 0.801184 1.106267 -1.116728 -0.016701 0.621317 -0.203652 -0.847877 -0.311927 -0.191560 -0.029958 0.816450 0.057409 0.560604 -0.375387 -0.049619 0.026503 -0.119588 0.152986 -0.126860 
2 -0.700024 -2.897146 -1.289245 -0.231127 0.178041 1.383882 0.060113 -0.496042 -0.946023 -0.858928 0.311918 -0.521582 -0.409736 -1.958581 -0.482755 0.935594 1.031983 -0.717772 -0.292320 -0.119813 
4 -0.386395 3.476400 0.635314 -2.474123 0.926528 -1.251999 -1.519899 -0.381606 -0.472022 -0.042188 1.051121 -2.299242 -0.081747 -0.526834 -0.129737 0.248852 -0.355438 -2.943815 -0.717182 2.379518 
5 -0.521940 -0.084693 0.171275 0.459443 0.193784 0.176699 0.365645 -0.033329 0.576909 -0.604486 -0.493371 -0.596219 0.215930 0.557668 0.797215 -0.073459 -0.280310 0.015802 -0.074111 -0.196870 
6 1.742806 -0.384493 -0.847567 -0.938513 0.218521 -0.872118 0.153560 -0.142201 -1.223406 1.749250 1.730586 -0.258009 -3.111949 0.375928 0.592344 -1.412215 0.908042 -0.297788 -2.712305 -0.148148 
20 -0.922026 -0.622579 -0.120242 0.244124 0.136183 0.599374 0.609813 -0.852377 -0.020272 -0.398778 0.030652 0.471398 0.567239 0.906475 0.178690 -0.115384 0.027719 -0.531596 0.174335 0.297141 
59 -3.037856 1.445573 -0.109805 1.293502 -0.196858 0.316802 0.037404 -0.735573 0.241638 -1.935868 -0.682654 0.776527 0.425535 0.127170 -0.648632 -2.270785 -2.621979 0.819496 -2.083947 -0.127275 
61 1.607754 0.546958 1.176121 -0.599616 -1.508797 0.443421 2.862496 0.833870 -2.210258 2.208406 -0.912258 -1.276704 2.211875 -2.190676 0.474025 -1.106807 0.876505 -0.357056 -0.302322 0.123379 
75 2.362858 1.018792 0.930133 -1.521951 0.481177 -0.264752 1.225881 0.162187 0.660482 3.124391 -0.933947 0.300502 -1.131160 0.790513 -1.735172 -0.801862 0.428161 0.159524 0.517099 -0.019921 
77 -0.305420 -0.554742 0.743145 1.201134 0.618008 -0.219870 1.937351 0.806328 0.406906 1.997358 1.778542 -0.458280 -1.399032 1.664356 0.216184 -0.733682 0.446324 -0.935536 0.162878 -0.642572 
86 -1.343241 -0.352793 0.876623 1.087050 -0.520496 -5.303366 -0.809955 -1.141855 0.540331 -0.875110 -0.121528 3.136111 1.362574 0.140838 0.493337 -0.727362 -2.066615 -0.051299 0.531767 -1.958445 
89 -0.683161 -0.008869 -0.152129 -0.343504 -1.498214 -0.686475 1.145917 2.481721 0.138039 -1.055174 -1.450346 0.028818 0.509976 0.055757 0.655307 -2.207220 1.503917 -1.416586 0.604299 0.400739 
8 -0.363992 0.738993 -1.031850 -2.451094 -0.390533 -0.797636 3.474934 0.947800 0.596094 -3.492194 -2.243608 0.822807 -0.935605 1.057196 0.750379 2.104379 0.916711 -0.247928 -3.001756 -0.401808 
18 -0.635747 -1.732744 0.444817 -0.258729 1.082128 0.111691 0.375315 1.585342 -0.279582 -0.532412 -0.740047 -0.532649 0.353195 -1.451382 -0.341369 -0.030659 -0.866433 -0.365434 0.499975 -1.578513 
51 -1.310742 0.229923 0.367986 -0.454478 0.097919 0.143264 0.186743 0.634064 -0.239553 -0.369535 -0.107688 0.816177 -0.355085 0.227296 0.017265 -1.319346 0.103614 0.130320 -0.042835 -0.194144 
58 -2.714744 -1.064863 3.461284 -1.207453 1.918332 -0.753381 0.411735 1.221572 -1.836458 -0.118519 0.584046 -1.394636 1.111285 1.641380 -0.443694 0.974494 -0.348633 0.731543 -0.117453 0.123593 
60 -2.375288 2.149563 -0.568145 -1.194437 1.524727 0.324681 0.301918 -0.645152 0.336712 0.013270 1.111424 0.509824 0.247937 -0.130831 0.111842 -0.835359 0.128230 -1.161680 0.122716 0.049989 
78 1.465165 1.365487 0.951605 2.099575 3.501573 2.656762 -0.101013 0.605394 2.218785 -0.128438 1.850367 -1.587091 0.678057 -0.193029 2.197221 -2.573670 0.751946 -0.308691 -3.097490 -0.647255 
84 -2.215037 0.438299 -2.394780 -2.362012 1.337212 2.083880 1.412038 0.264192 -0.198966 0.040130 0.115044 -0.256946 0.661192 -1.737324 0.388851 -0.459451 -2.485627 -2.072992 0.847497 0.300530 
92 1.584940 -1.012820 0.191857 0.836882 1.095723 0.238013 3.076671 -1.387824 -2.201055 -2.147900 -0.098178 -2.421967 0.229524 -0.959926 0.508294 0.282903 0.747469 2.273145 1.594033 0.491452 
99 1.040217 1.462670 1.574662 1.818400 -0.983120 0.688782 2.356510 -1.663708 -0.511959 0.968284 -1.073437 1.195515 1.323418 -1.909508 -0.637403 -0.078270 -2.557697 1.708972 -2.447685 1.200073 
22 0.662072 0.482234 -0.976605 0.028230 -0.000768 -2.227477 0.446270 0.217982 1.340454 -0.833583 2.495076 1.100907 -0.258899 -4.469503 0.236378 3.025383 -1.003528 -0.816195 0.020836 -0.554314 
33 0.709653 -3.441856 -1.526392 1.452428 -0.179198 0.045129 -2.198261 -1.865252 1.032772 -1.251491 -0.350126 0.849659 0.838111 0.782551 -2.857395 -0.178101 0.323526 -2.155359 -1.437036 3.237731 
36 -0.931411 1.359689 -0.018471 -0.339432 -2.645931 -0.499761 -1.161799 -1.648116 -0.191555 0.559309 2.240817 1.811413 -1.536720 -0.542332 -1.211512 -1.569627 -1.244305 1.677955 -0.832368 -2.295302 
56 0.398431 0.370910 -0.055614 0.271557 1.572827 -0.414431 -1.222261 1.042687 1.715160 0.210980 0.163709 -0.979004 -0.999944 -2.598914 0.019616 0.266490 -2.011466 -0.393564 0.330353 0.609863 
62 2.597756 -0.319633 0.470525 0.860342 -1.388933 0.637484 0.131934 -0.523932 0.373554 -0.239786 -0.362138 -0.716250 2.423217 -0.256532 -0.466211 0.139080 -1.313874 -1.788076 -1.177096 -0.388832 
73 1.364512 -0.456306 0.236770 -1.212765 0.634755 -0.031463 -0.360594 -1.398714 -0.763581 -0.360174 -1.576213 -1.306578 1.164616 0.123071 0.594125 0.023635 -0.148118 0.808603 -0.132081 -0.347809 
81 0.417906 0.089285 0.406212 0.486018 -1.189443 0.018623 -0.004307 -0.077627 0.223648 0.454993 0.736448 -0.078502 -1.230667 -0.229099 -0.458696 -0.190961 0.591537 -0.169756 -0.672864 -0.906675 
98 2.632630 -0.229277 -2.085344 -1.899276 0.724069 1.526319 0.429270 1.022153 0.584011 -2.998820 0.187141 0.933712 -1.313166 -0.525986 -0.771075 0.199937 -4.051609 -1.280064 -1.384256 2.527314 
17 1.840705 -1.499533 -1.250107 -2.631061 4.061666 -1.721125 -2.574966 0.401182 1.453135 1.452693 0.971916 1.011910 0.666224 -0.035899 -0.515642 -1.670993 -0.168807 1.180707 -0.381104 -1.678474 
24 -2.641446 0.990012 -1.961022 -1.397426 -0.575167 -1.679050 1.171641 1.124649 0.694895 -0.608510 -0.938527 -1.459381 -0.077335 0.176399 -0.544758 -0.230986 1.057151 0.183814 -0.205392 1.145779 
28 1.119214 -0.272982 1.355046 0.978099 0.527424 -3.147061 1.158848 0.670238 1.089101 2.663961 -1.075656 -0.602341 0.644518 0.234192 -0.372722 0.485940 -1.142215 0.063090 -0.939541 -0.084239 
30 -1.713947 -0.418551 -0.977649 -2.899394 -1.984091 0.023728 0.955066 1.230241 -1.078609 -2.152675 -0.483432 -1.391626 2.180983 0.569834 -0.955846 -0.782995 -1.464760 2.324368 0.195984 -2.113105 
32 0.196915 -0.952068 -1.302463 -3.338545 -1.080759 1.027287 -0.966548 3.072835 1.310365 -2.406118 -0.300881 0.109922 -0.613849 -0.637894 -0.012942 0.158588 1.411698 0.093825 -1.833630 -1.869078 
52 -0.113189 -0.751583 -0.042976 0.536971 -0.545970 -0.077381 -0.162594 -0.150192 -0.123035 -0.210254 -0.887874 0.211591 -0.911083 -0.010849 0.478907 -1.024699 -1.539489 0.225667 -0.598896 -0.220857 
54 0.469968 -0.401632 -1.256300 -1.644551 -0.800133 -0.765152 0.751249 1.273800 -0.607001 -1.067230 1.002619 0.092968 1.020492 -0.094481 -0.779951 -1.105125 -0.067489 1.431037 2.069164 0.581982 
83 -1.573197 -1.962485 0.957335 -0.822007 2.400249 0.341934 2.470228 0.076122 -0.942005 -1.971563 1.272427 0.143932 0.873291 2.471014 0.344906 1.508905 0.202977 -0.087094 0.012568 -1.390111 
85 -0.792676 -1.491444 0.164801 -0.914575 -0.579973 -0.402547 0.763146 1.587744 -0.449824 2.910988 0.629443 2.098870 1.827536 -2.618183 1.850399 -0.434995 0.828483 1.182320 0.868921 1.722280 
96 3.016235 0.192191 -2.191040 -2.198193 -1.389718 -1.725486 0.134159 2.016576 2.760537 -2.025125 -1.103580 -0.833020 -0.037126 -1.598239 -1.177968 1.829193 -2.227629 -0.725118 -0.607940 -1.929669 
44 0.368069 0.808387 0.126551 -0.970420 -0.275343 -0.256147 1.578061 0.153468 2.058474 -0.081603 -1.321690 1.597032 0.142195 0.419480 0.182617 1.307155 0.474054 -0.839631 -0.704868 -1.120806 
76 0.855414 -1.206881 -0.787056 -0.571348 -0.954702 0.314998 0.532217 -0.972774 -0.410010 -0.666366 0.388251 -3.075237 -0.839646 0.668576 -0.154940 0.633141 -0.884707 0.109856 1.542278 -1.643950 
7 0.216440 0.741894 -0.858756 -0.984178 0.030903 0.445726 -0.068997 -2.508473 1.764287 1.022473 -1.330396 -1.585517 -1.566448 0.065513 1.054662 1.095604 -0.063148 -0.216690 1.878721 -0.728868 
12 -0.495967 -2.668664 0.999262 1.784525 -3.454431 -3.262348 1.017868 1.333866 -0.983653 -0.996468 -0.326234 2.550741 -0.149210 -2.484814 0.168413 0.504972 3.208406 -1.313160 0.442650 2.186288 
25 0.299686 -0.364724 0.459578 2.187921 0.816409 -1.777953 2.281479 -1.287445 -0.772377 -0.888653 -2.157343 0.703399 -1.474126 -0.920677 1.238319 -1.097303 -1.475992 1.322162 -0.475444 0.246797 
35 0.608458 -1.016510 -0.334793 -0.334061 3.235119 -2.740390 -0.036593 1.276193 2.705481 2.659786 -1.445408 0.596529 -1.135044 0.004221 -0.466848 -1.140169 -0.134927 0.988982 0.972750 -1.143533 
37 -0.299165 -0.267939 0.529894 -0.180206 0.229628 -0.349743 -1.002748 0.259963 0.498408 0.006778 0.221493 -1.064287 -0.142400 0.797012 -0.521173 0.090375 0.121030 0.368181 -0.324119 0.552233 
82 0.913901 -0.512173 -0.238708 -0.017701 -0.280471 -1.735979 0.029027 0.055152 1.713461 1.343674 -1.360790 0.099528 -0.606909 -0.219740 -0.445671 1.117355 -0.365633 0.240038 -0.474963 0.347013 
14 -1.417684 -0.981201 4.066841 0.284308 0.836762 0.579483 1.331656 -0.302926 1.183864 1.052401 -3.017964 -0.237275 -2.009273 1.439057 -0.459114 2.129774 0.952268 0.104553 0.197900 0.422764 
72 -1.760606 -0.267934 0.153574 -0.271696 0.209419 0.974265 -0.762676 0.462153 0.686023 -0.001600 2.024023 -0.387733 -0.992117 -1.019668 0.256613 0.887768 -0.380408 -0.006769 -0.128971 -0.782762 
88 0.598843 0.212537 1.259241 0.599078 -0.781736 0.988182 0.662295 -0.603645 -0.450937 -0.030243 0.037543 0.396533 -0.471500 -0.154533 0.092602 0.182923 -0.904663 -0.089263 -0.878066 -0.056442 
39 0.408807 1.396976 -4.237262 -0.522298 -4.122843 -0.867237 0.883149 0.271369 1.936823 0.386318 1.483318 -1.262069 0.341879 0.655683 0.815130 -2.705706 0.376851 1.229921 -0.807784 -1.509012 
93 -1.449364 -1.885069 -2.563362 -0.237412 -1.145322 -0.187962 0.219661 -0.435478 0.391011 -0.228103 -0.258138 -0.751479 0.224275 1.248493 -1.112936 -0.361646 -0.292387 -0.192779 -0.247992 0.673362 
79 -1.876379 -0.956856 -0.826759 1.547451 -0.931784 -3.833767 1.882411 0.059435 -0.379700 -0.458626 -0.267036 -0.717236 -1.831299 -0.103414 -0.797936 -0.444972 -0.243642 -3.761632 0.013350 -1.691644 
38 -0.170331 -0.595180 -1.724021 -2.896048 1.417024 1.429670 0.948288 -0.031381 0.964258 0.423010 0.908017 2.817122 -2.065505 -2.670704 1.499163 2.636424 -1.159818 -1.059381 0.485583 1.447334 
